// This file was generated by a MATLAB script.
// Author: Joao Casaleiro. 

#ifndef COEFS_H_ 
#define COEFS_H_ 

//-------------------------------
// Filters coefficients
//-------------------------------
// The coefficients format and position are as follows:
// Numerator is bnk with n=0..2 and k is the stage number
// Denominator is ank with n=0..2 and k is the stage number

// taps[]={b01 b11  b21 a01 a11 a21		- first stage
//  b02 b12  b22 a02 a12 a22            - second stage
//  ...
//  b0k b1k  b2k a0k a1k a2k}           - k-th stage


// A-WEIGHTED filter taps (3 biquad blocks)
static const float A_WEIGHTED_taps[18]={
0.234301792299513f, 0.468603584599027f, 0.234301792299513f, 1.000000000000000f, -0.224558458059779f, 0.012606625271546f,
1.000000000000000f, -2.000000000000000f, 1.000000000000000f, 1.000000000000000f, -1.893870494723071f, 0.895159769094661f,
1.000000000000000f, -2.000000000000000f, 1.000000000000000f, 1.000000000000000f, -1.994614455993022f, 0.994621707014084f };


// C-WEIGHTED filter taps
static const float C_WEIGHTED_taps[12]={
0.197887120026393f, 0.395774240052787f, 0.197887120026393f, 1.000000000000000f, -0.224558458059779f, 0.012606625271546f,
1.000000000000000f, -2.000000000000000f, 1.000000000000000f, 1.000000000000000f, -1.994614455993022f, 0.994621707014084f };


//alfaF = 1 - exp(- 1/(FS*FAST));
// FS=44100 and FAST=0.125
#define alphaF	2.72072e-4

//alfaS = 1 - exp(- 1/(FS*SLOW));
// FS=44100 and SLOW=1.0
#define alphaS	3.40130e-5

// Taps for exponential moving average filter for the RMS calc
static const float TWSL_FAST_taps[4] = { alphaF, 0, 1, -(1-alphaF)};
static const float TWSL_SLOW_taps[4] = { alphaS, 0, 1, -(1-alphaS)};

//-------------------------------
// Octave-Band Filter Bank 
//-------------------------------

// Octave band 31.62Hz 
static const float OCTAVE_BAND_1[18]={
0.001457235045748f, 0.000000000000000f, -0.001457235045748f, 1.000000000000000f, -1.998080820882698f, 0.998112311889660f,
0.001457235045748f, 0.000000000000000f, -0.001457235045748f, 1.000000000000000f, -1.998964096333525f, 0.998973405984375f,
0.001456175210563f, 0.000000000000000f, -0.001456175210563f, 1.000000000000000f, -1.997070539812483f, 0.997087649578875f };


// Octave band 63.10Hz 
static const float OCTAVE_BAND_2[18]={
0.002905458477209f, 0.000000000000000f, -0.002905458477209f, 1.000000000000000f, -1.996111876421732f, 0.996237125811397f,
0.002905458477209f, 0.000000000000000f, -0.002905458477209f, 1.000000000000000f, -1.997915670223496f, 0.997952713637403f,
0.002901252926572f, 0.000000000000000f, -0.002901252926572f, 1.000000000000000f, -1.994129477661085f, 0.994197494146856f };


// Octave band 125.89Hz 
static const float OCTAVE_BAND_3[18]={
0.005788776230355f, 0.000000000000000f, -0.005788776230355f, 1.000000000000000f, -1.992008625901935f, 0.992506306864583f,
0.005788776230355f, 0.000000000000000f, -0.005788776230355f, 1.000000000000000f, -1.995771894842731f, 0.995919215948547f,
0.005772141945791f, 0.000000000000000f, -0.005772141945791f, 1.000000000000000f, -1.988185719542316f, 0.988455716108418f };


// Octave band 251.19Hz 
static const float OCTAVE_BAND_4[18]={
0.011516905420814f, 0.000000000000000f, -0.011516905420814f, 1.000000000000000f, -1.983131480912737f, 0.985105204283710f,
0.011516905420814f, 0.000000000000000f, -0.011516905420814f, 1.000000000000000f, -1.991288443158403f, 0.991873730584827f,
0.011451531925305f, 0.000000000000000f, -0.011451531925305f, 1.000000000000000f, -1.976028236845002f, 0.977096936149390f };


// Octave band 501.19Hz 
static const float OCTAVE_BAND_5[18]={
0.022847968358850f, 0.000000000000000f, -0.022847968358850f, 1.000000000000000f, -1.962715378455239f, 0.970511675825206f,
0.022847968358850f, 0.000000000000000f, -0.022847968358850f, 1.000000000000000f, -1.981526669146749f, 0.983847039750592f,
0.022594275229764f, 0.000000000000000f, -0.022594275229764f, 1.000000000000000f, -1.950605406607080f, 0.954811449540473f };


// Octave band 1000.00Hz 
static const float OCTAVE_BAND_6[18]={
0.045072953514671f, 0.000000000000000f, -0.045072953514671f, 1.000000000000000f, -1.911570934017135f, 0.942106946582538f,
0.045072953514671f, 0.000000000000000f, -0.045072953514671f, 1.000000000000000f, -1.958835669659607f, 0.967994525760731f,
0.044112434061363f, 0.000000000000000f, -0.044112434061363f, 1.000000000000000f, -1.895408030001657f, 0.911775131877274f };


// Octave band 1995.26Hz 
static const float OCTAVE_BAND_7[18]={
0.087947308812229f, 0.000000000000000f, -0.087947308812229f, 1.000000000000000f, -1.771050936419091f, 0.888423471115221f,
0.087947308812229f, 0.000000000000000f, -0.087947308812229f, 1.000000000000000f, -1.901076021370891f, 0.936885468563975f,
0.084477893614849f, 0.000000000000000f, -0.084477893614849f, 1.000000000000000f, -1.768770813623649f, 0.831044212770303f };


// Octave band 3981.07Hz 
static const float OCTAVE_BAND_8[18]={
0.168095636095150f, 0.000000000000000f, -0.168095636095150f, 1.000000000000000f, -1.362646762528609f, 0.794172720331192f,
0.168095636095150f, 0.000000000000000f, -0.168095636095150f, 1.000000000000000f, -1.739032389675056f, 0.875938230364835f,
0.156601840349828f, 0.000000000000000f, -0.156601840349828f, 1.000000000000000f, -1.460355418769314f, 0.686796319300344f };


// Octave band 7943.28Hz 
static const float OCTAVE_BAND_9[18]={
0.310059933276776f, 0.000000000000000f, -0.310059933276776f, 1.000000000000000f, -1.259786065969120f, 0.751413340793464f,
0.310059933276776f, 0.000000000000000f, -0.310059933276776f, 1.000000000000000f, -0.246028686478664f, 0.663804706183328f,
0.277259041496487f, 0.000000000000000f, -0.277259041496487f, 1.000000000000000f, -0.698926818165453f, 0.445481917007026f };


// Octave band 15848.93Hz 
static const float OCTAVE_BAND_10[18]={
0.545572357162476f, 0.000000000000000f, -0.545572357162476f, 1.000000000000000f, 1.787346299403054f, 0.831013848953018f,
0.545572357162476f, 0.000000000000000f, -0.545572357162476f, 1.000000000000000f, -0.092630744652385f, 0.404298815793830f,
0.472713978562442f, 0.000000000000000f, -0.472713978562442f, 1.000000000000000f, 0.833045290557609f, 0.054572042875116f };



//-------------------------------
// 1/3-Octave-Band Filter Bank 
//-------------------------------

// Third octave band 25.12Hz 
static const float THIRD_OCTAVE_BAND_1[24]={
0.000379332677488f, 0.000000000000000f, -0.000379332677488f, 1.000000000000000f, -1.999665501943956f, 0.999678878030341f,
0.000379332677488f, 0.000000000000000f, -0.000379332677488f, 1.000000000000000f, -1.999731730077816f, 0.999740465629748f,
0.000379254838281f, 0.000000000000000f, -0.000379254838281f, 1.000000000000000f, -1.999256388765915f, 0.999268201010892f,
0.000379254838281f, 0.000000000000000f, -0.000379254838281f, 1.000000000000000f, -1.999320368889751f, 0.999330256836508f };


// Third octave band 31.62Hz 
static const float THIRD_OCTAVE_BAND_2[24]={
0.000477533594544f, 0.000000000000000f, -0.000477533594544f, 1.000000000000000f, -1.999574540512957f, 0.999595738280530f,
0.000477533594544f, 0.000000000000000f, -0.000477533594544f, 1.000000000000000f, -1.999659441062302f, 0.999673286514501f,
0.000477410251457f, 0.000000000000000f, -0.000477410251457f, 1.000000000000000f, -1.999060023515365f, 0.999078740416983f,
0.000477410251457f, 0.000000000000000f, -0.000477410251457f, 1.000000000000000f, -1.999141310464525f, 0.999156982904579f };


// Third octave band 39.81Hz 
const float THIRD_OCTAVE_BAND_3[24]={
0.000601150724880f, 0.000000000000000f, -0.000601150724880f, 1.000000000000000f, -1.999457498696615f, 0.999491093315921f,
0.000601150724880f, 0.000000000000000f, -0.000601150724880f, 1.000000000000000f, -1.999566765112741f, 0.999588707518228f,
0.000600955286618f, 0.000000000000000f, -0.000600955286618f, 1.000000000000000f, -1.998810686079549f, 0.998840347040568f,
0.000600955286618f, 0.000000000000000f, -0.000600955286618f, 1.000000000000000f, -1.998913978108100f, 0.998938814287829f };


// Third octave band 50.12Hz 
const float THIRD_OCTAVE_BAND_4[24]={
0.000756758831963f, 0.000000000000000f, -0.000756758831963f, 1.000000000000000f, -1.999306128961488f, 0.999359369661166f,
0.000756758831963f, 0.000000000000000f, -0.000756758831963f, 1.000000000000000f, -1.999447464059602f, 0.999482238129315f,
0.000756449177648f, 0.000000000000000f, -0.000756449177648f, 1.000000000000000f, -1.998493299659482f, 0.998540301912577f,
0.000756449177648f, 0.000000000000000f, -0.000756449177648f, 1.000000000000000f, -1.998624873078844f, 0.998664230399199f };


// Third octave band 63.10Hz 
const float THIRD_OCTAVE_BAND_5[24]={
0.000952631461783f, 0.000000000000000f, -0.000952631461783f, 1.000000000000000f, -1.999109187176798f, 0.999193560527014f,
0.000952631461783f, 0.000000000000000f, -0.000952631461783f, 1.000000000000000f, -1.999293111255251f, 0.999348220912197f,
0.000952140881148f, 0.000000000000000f, -0.000952140881148f, 1.000000000000000f, -1.998088219339796f, 0.998162698828897f,
0.000952140881148f, 0.000000000000000f, -0.000952140881148f, 1.000000000000000f, -1.998256287534392f, 0.998318653607645f };


// Third octave band 79.43Hz 
const float THIRD_OCTAVE_BAND_6[24]={
0.001199178702037f, 0.000000000000000f, -0.001199178702037f, 1.000000000000000f, -1.998851152640526f, 0.998984861034652f,
0.001199178702037f, 0.000000000000000f, -0.001199178702037f, 1.000000000000000f, -1.999092191122124f, 0.999179526288425f,
0.001198401559779f, 0.000000000000000f, -0.001198401559779f, 1.000000000000000f, -1.997569508634083f, 0.997687521794468f,
0.001198401559779f, 0.000000000000000f, -0.001198401559779f, 1.000000000000000f, -1.997784951468788f, 0.997883773631117f };


// Third octave band 100.00Hz 
const float THIRD_OCTAVE_BAND_7[24]={
0.001509497060969f, 0.000000000000000f, -0.001509497060969f, 1.000000000000000f, -1.998510302346261f, 0.998722186558799f,
0.001509497060969f, 0.000000000000000f, -0.001509497060969f, 1.000000000000000f, -1.998828790931388f, 0.998967192649378f,
0.001508266122475f, 0.000000000000000f, -0.001508266122475f, 1.000000000000000f, -1.996902654130505f, 0.997089635315221f,
0.001508266122475f, 0.000000000000000f, -0.001508266122475f, 1.000000000000000f, -1.997179977084338f, 0.997336556100351f };


// Third octave band 125.89Hz 
const float THIRD_OCTAVE_BAND_8[24]={
0.001900059780079f, 0.000000000000000f, -0.001900059780079f, 1.000000000000000f, -1.998055845792515f, 0.998391600701496f,
0.001900059780079f, 0.000000000000000f, -0.001900059780079f, 1.000000000000000f, -1.998480620900530f, 0.998699941996164f,
0.001898110367087f, 0.000000000000000f, -0.001898110367087f, 1.000000000000000f, -1.996041221483116f, 0.996337452538625f,
0.001898110367087f, 0.000000000000000f, -0.001898110367087f, 1.000000000000000f, -1.996399998630697f, 0.996648072250047f };


// Third octave band 158.49Hz 
const float THIRD_OCTAVE_BAND_9[24]={
0.002391582807680f, 0.000000000000000f, -0.002391582807680f, 1.000000000000000f, -1.997443563003372f, 0.997975579257190f,
0.002391582807680f, 0.000000000000000f, -0.002391582807680f, 1.000000000000000f, -1.998016052617771f, 0.998363590932257f,
0.002388496171902f, 0.000000000000000f, -0.002388496171902f, 1.000000000000000f, -1.994922054107667f, 0.995391319712643f,
0.002388496171902f, 0.000000000000000f, -0.002388496171902f, 1.000000000000000f, -1.995388996320885f, 0.995781991409346f };


// Third octave band 199.53Hz 
const float THIRD_OCTAVE_BAND_10[24]={
0.003010110119574f, 0.000000000000000f, -0.003010110119574f, 1.000000000000000f, -1.996609151658714f, 0.997452097949732f,
0.003010110119574f, 0.000000000000000f, -0.003010110119574f, 1.000000000000000f, -1.997389617361240f, 0.997940302543079f,
0.003005224060078f, 0.000000000000000f, -0.003005224060078f, 1.000000000000000f, -1.993458215657957f, 0.994201491777849f,
0.003005224060078f, 0.000000000000000f, -0.003005224060078f, 1.000000000000000f, -1.994070212396361f, 0.994692716270905f };


// Third octave band 251.19Hz 
const float THIRD_OCTAVE_BAND_11[24]={
0.003788372336035f, 0.000000000000000f, -0.003788372336035f, 1.000000000000000f, -1.995458003913642f, 0.996793488721506f,
0.003788372336035f, 0.000000000000000f, -0.003788372336035f, 1.000000000000000f, -1.996535130920682f, 0.997407652159563f,
0.003780640261097f, 0.000000000000000f, -0.003780640261097f, 1.000000000000000f, -1.991528531090186f, 0.992705619845136f,
0.003780640261097f, 0.000000000000000f, -0.003780640261097f, 1.000000000000000f, -1.992337170138683f, 0.993323066232640f };


// Third octave band 316.23Hz 
const float THIRD_OCTAVE_BAND_12[24]={
0.004767484898877f, 0.000000000000000f, -0.004767484898877f, 1.000000000000000f, -1.993849429820485f, 0.995965015504700f,
0.004767484898877f, 0.000000000000000f, -0.004767484898877f, 1.000000000000000f, -1.995355124763781f, 0.996737455316989f,
0.004755253891154f, 0.000000000000000f, -0.004755253891154f, 1.000000000000000f, -1.988961952483252f, 0.990825649950355f,
0.004755253891154f, 0.000000000000000f, -0.004755253891154f, 1.000000000000000f, -1.990040285687969f, 0.991601404219014f };


// Third octave band 398.11Hz 
const float THIRD_OCTAVE_BAND_13[24]={
0.005999066610843f, 0.000000000000000f, -0.005999066610843f, 1.000000000000000f, -1.991572221587514f, 0.994923104946946f,
0.005999066610843f, 0.000000000000000f, -0.005999066610843f, 1.000000000000000f, -1.993704525565995f, 0.995894300033814f,
0.005979728534228f, 0.000000000000000f, -0.005979728534228f, 1.000000000000000f, -1.985514011667210f, 0.988464012068822f,
0.005979728534228f, 0.000000000000000f, -0.005979728534228f, 1.000000000000000f, -1.986966752826473f, 0.989438091083121f };


// Third octave band 501.19Hz 
const float THIRD_OCTAVE_BAND_14[24]={
0.007547876131580f, 0.000000000000000f, -0.007547876131580f, 1.000000000000000f, -1.988306716873517f, 0.993613159126713f,
0.007547876131580f, 0.000000000000000f, -0.007547876131580f, 1.000000000000000f, -1.991365363263507f, 0.994833709443064f,
0.007517320315350f, 0.000000000000000f, -0.007517320315350f, 1.000000000000000f, -1.980831153763774f, 0.985498972914509f,
0.007517320315350f, 0.000000000000000f, -0.007517320315350f, 1.000000000000000f, -1.982810123171994f, 0.986721128817562f };


// Third octave band 630.96Hz 
const float THIRD_OCTAVE_BAND_15[24]={
0.009495082779947f, 0.000000000000000f, -0.009495082779947f, 1.000000000000000f, -1.983565835610418f, 0.991966870031990f,
0.009495082779947f, 0.000000000000000f, -0.009495082779947f, 1.000000000000000f, -1.988007483301714f, 0.993499841636241f,
0.009446839731169f, 0.000000000000000f, -0.009446839731169f, 1.000000000000000f, -1.974396503375457f, 0.981779021249594f,
0.009446839731169f, 0.000000000000000f, -0.009446839731169f, 1.000000000000000f, -1.977124088508012f, 0.983310840475847f };


// Third octave band 794.33Hz 
const float THIRD_OCTAVE_BAND_16[24]={
0.011942307867342f, 0.000000000000000f, -0.011942307867342f, 1.000000000000000f, -1.976603466455667f, 0.989898955576728f,
0.011942307867342f, 0.000000000000000f, -0.011942307867342f, 1.000000000000000f, -1.983127449449066f, 0.991822607569899f,
0.011866214122559f, 0.000000000000000f, -0.011866214122559f, 1.000000000000000f, -1.965447250469038f, 0.977116173522976f,
0.011866214122559f, 0.000000000000000f, -0.011866214122559f, 1.000000000000000f, -1.969252067446218f, 0.979033418875421f };


// Third octave band 1000.00Hz 
const float THIRD_OCTAVE_BAND_17[24]={
0.015016591963687f, 0.000000000000000f, -0.015016591963687f, 1.000000000000000f, -1.966272428071967f, 0.987303253265836f,
0.015016591963687f, 0.000000000000000f, -0.015016591963687f, 1.000000000000000f, -1.975953560750883f, 0.989714050767666f,
0.014896717199902f, 0.000000000000000f, -0.014896717199902f, 1.000000000000000f, -1.952848888356803f, 0.971278137186514f,
0.014896717199902f, 0.000000000000000f, -0.014896717199902f, 1.000000000000000f, -1.958219878436538f, 0.973673168815800f };


// Third octave band 1258.93Hz 
const float THIRD_OCTAVE_BAND_18[24]={
0.018876458549744f, 0.000000000000000f, -0.018876458549744f, 1.000000000000000f, -1.950805270447617f, 0.984048158630830f,
0.018876458549744f, 0.000000000000000f, -0.018876458549744f, 1.000000000000000f, -1.965298506619779f, 0.987063775146537f,
0.018687904775829f, 0.000000000000000f, -0.018687904775829f, 1.000000000000000f, -1.934904492300405f, 0.963979378323710f,
0.018687904775829f, 0.000000000000000f, -0.018687904775829f, 1.000000000000000f, -1.942572527304493f, 0.966963265519071f };


// Third octave band 1584.89Hz 
const float THIRD_OCTAVE_BAND_19[24]={
0.023719249426099f, 0.000000000000000f, -0.023719249426099f, 1.000000000000000f, -1.927478804255438f, 0.979971515952243f,
0.023719249426099f, 0.000000000000000f, -0.023719249426099f, 1.000000000000000f, -1.949331866239287f, 0.983733111658217f,
0.023423242577185f, 0.000000000000000f, -0.023423242577185f, 1.000000000000000f, -1.909067811645020f, 0.954871349536722f,
0.023423242577185f, 0.000000000000000f, -0.023423242577185f, 1.000000000000000f, -1.920127511893510f, 0.958574851823162f };


// Third octave band 1995.26Hz 
const float THIRD_OCTAVE_BAND_20[24]={
0.029789892009799f, 0.000000000000000f, -0.029789892009799f, 1.000000000000000f, -1.892107877633782f, 0.974875327007835f,
0.029789892009799f, 0.000000000000000f, -0.029789892009799f, 1.000000000000000f, -1.925231821853337f, 0.979547541985416f,
0.029326321004272f, 0.000000000000000f, -0.029326321004272f, 1.000000000000000f, -1.871517854297885f, 0.943532511604497f,
0.029326321004272f, 0.000000000000000f, -0.029326321004272f, 1.000000000000000f, -1.887606207405594f, 0.948104278186517f };


// Third octave band 2511.89Hz 
const float THIRD_OCTAVE_BAND_21[24]={
0.037391207279938f, 0.000000000000000f, -0.037391207279938f, 1.000000000000000f, -1.838299469503874f, 0.968521173836983f,
0.037391207279938f, 0.000000000000000f, -0.037391207279938f, 1.000000000000000f, -1.888659666927089f, 0.974286566317465f,
0.036667410315914f, 0.000000000000000f, -0.036667410315914f, 1.000000000000000f, -1.816543497088098f, 0.929459441096018f,
0.036667410315914f, 0.000000000000000f, -0.036667410315914f, 1.000000000000000f, -1.840094015228472f, 0.935058195729942f };


// Third octave band 3162.28Hz 
const float THIRD_OCTAVE_BAND_22[24]={
0.046895755340618f, 0.000000000000000f, -0.046895755340618f, 1.000000000000000f, -1.756398246683140f, 0.960628325993258f,
0.046895755340618f, 0.000000000000000f, -0.046895755340618f, 1.000000000000000f, -1.832986437839206f, 0.967669530296592f,
0.045769908670870f, 0.000000000000000f, -0.045769908670870f, 1.000000000000000f, -1.735690736464565f, 0.912061454095944f,
0.045769908670870f, 0.000000000000000f, -0.045769908670870f, 1.000000000000000f, -1.770276773979641f, 0.918835896194141f };


// Third octave band 3981.07Hz 
const float THIRD_OCTAVE_BAND_23[24]={
0.058759008614424f, 0.000000000000000f, -0.058759008614424f, 1.000000000000000f, -1.632107380190459f, 0.950878699348836f,
0.058759008614424f, 0.000000000000000f, -0.058759008614424f, 1.000000000000000f, -1.748203769317491f, 0.959334490861289f,
0.057015978662284f, 0.000000000000000f, -0.057015978662284f, 1.000000000000000f, -1.616672118987693f, 0.890663174242291f,
0.057015978662284f, 0.000000000000000f, -0.057015978662284f, 1.000000000000000f, -1.667427149305424f, 0.898707391579140f };


// Third octave band 5011.87Hz 
const float THIRD_OCTAVE_BAND_24[24]={
0.073533295448891f, 0.000000000000000f, -0.073533295448891f, 1.000000000000000f, -1.444968449772501f, 0.938937478264492f,
0.073533295448891f, 0.000000000000000f, -0.073533295448891f, 1.000000000000000f, -1.619514441766086f, 0.948803947115959f,
0.070850391368287f, 0.000000000000000f, -0.070850391368287f, 1.000000000000000f, -1.442198149216209f, 0.864523187224268f,
0.070850391368287f, 0.000000000000000f, -0.070850391368287f, 1.000000000000000f, -1.516224725287344f, 0.873783324827840f };


// Third octave band 6309.57Hz 
const float THIRD_OCTAVE_BAND_25[24]={
0.091881421033000f, 0.000000000000000f, -0.091881421033000f, 1.000000000000000f, -1.167446179378917f, 0.924508724628086f,
0.091881421033000f, 0.000000000000000f, -0.091881421033000f, 1.000000000000000f, -1.425832270133420f, 0.935423284259094f,
0.087781400402346f, 0.000000000000000f, -0.087781400402346f, 1.000000000000000f, -1.295812803367928f, 0.842966403018360f,
0.087781400402346f, 0.000000000000000f, -0.087781400402346f, 1.000000000000000f, -1.189317538406412f, 0.832884682934321f };


// Third octave band 7943.28Hz 
const float THIRD_OCTAVE_BAND_26[24]={
0.114588120794812f, 0.000000000000000f, -0.114588120794812f, 1.000000000000000f, -0.766714427634130f, 0.907472030430792f,
0.114588120794812f, 0.000000000000000f, -0.114588120794812f, 1.000000000000000f, -1.139081653434087f, 0.918235928481246f,
0.108377563454668f, 0.000000000000000f, -0.108377563454668f, 1.000000000000000f, -0.980288018446989f, 0.804855838450777f,
0.108377563454668f, 0.000000000000000f, -0.108377563454668f, 1.000000000000000f, -0.830842712242582f, 0.795093538126609f };


// Third octave band 10000.00Hz 
const float THIRD_OCTAVE_BAND_27[24]={
0.142566588775058f, 0.000000000000000f, -0.142566588775058f, 1.000000000000000f, -0.214032613324395f, 0.888227899549107f,
0.142566588775058f, 0.000000000000000f, -0.142566588775058f, 1.000000000000000f, -0.726809030737926f, 0.895689107590514f,
0.133260198937651f, 0.000000000000000f, -0.133260198937651f, 1.000000000000000f, -0.342429329061962f, 0.750882486822047f,
0.133260198937651f, 0.000000000000000f, -0.133260198937651f, 1.000000000000000f, -0.543571341970788f, 0.757516483506804f };


// Third octave band 12589.25Hz 
const float THIRD_OCTAVE_BAND_28[24]={
0.176856512551728f, 0.000000000000000f, -0.176856512551728f, 1.000000000000000f, -0.164160841276132f, 0.864780419793681f,
0.176856512551728f, 0.000000000000000f, -0.176856512551728f, 1.000000000000000f, 0.488942831399454f, 0.868706502615048f,
0.163093229363212f, 0.000000000000000f, -0.163093229363212f, 1.000000000000000f, 0.024999035077304f, 0.697771492833905f,
0.163093229363212f, 0.000000000000000f, -0.163093229363212f, 1.000000000000000f, 0.277995921302302f, 0.701199612420442f };


// Third octave band 15848.93Hz 
const float THIRD_OCTAVE_BAND_29[24]={
0.218610022818972f, 0.000000000000000f, -0.218610022818972f, 1.000000000000000f, 0.531632609473429f, 0.817593096399689f,
0.218610022818972f, 0.000000000000000f, -0.218610022818972f, 1.000000000000000f, 1.255579755726059f, 0.856486416968321f,
0.198576435739875f, 0.000000000000000f, -0.198576435739875f, 1.000000000000000f, 0.970663116668328f, 0.651963664047648f,
0.198576435739875f, 0.000000000000000f, -0.198576435739875f, 1.000000000000000f, 0.682134611600783f, 0.617995264438471f };


// Third octave band 19952.62Hz 
const float THIRD_OCTAVE_BAND_30[24]={
0.269064110503770f, 0.000000000000000f, -0.269064110503770f, 1.000000000000000f, 1.202686807356203f, 0.712485258725576f,
0.269064110503770f, 0.000000000000000f, -0.269064110503770f, 1.000000000000000f, 1.858290652285853f, 0.903135854959232f,
0.240455965692870f, 0.000000000000000f, -0.240455965692870f, 1.000000000000000f, 1.612291827682061f, 0.683163021791264f,
0.240455965692870f, 0.000000000000000f, -0.240455965692870f, 1.000000000000000f, 1.199895037762557f, 0.457529716266622f };


#endif  
